digraph Tree {
node [shape=box, style="rounded", color="black", fontname=helvetica] ;
edge [fontname=helvetica] ;
0 [label="AVGATGDIFF <= 0.5\nmse = 1.6\nsamples = 393\nvalue = 1.3"] ;
1 [label="AVGATGDIFF <= -0.5\nmse = 1.3\nsamples = 319\nvalue = 1.1"] ;
0 -> 1 [labeldistance=2.5, labelangle=45, headlabel="True"] ;
2 [label="FTAG_4 <= 2.5\nmse = 0.7\nsamples = 78\nvalue = 0.7"] ;
1 -> 2 ;
3 [label="AVGATGDIFF <= -2.0\nmse = 0.6\nsamples = 76\nvalue = 0.6"] ;
2 -> 3 ;
4 [label="mse = 0.0\nsamples = 1\nvalue = 2.0"] ;
3 -> 4 ;
5 [label="mse = 0.6\nsamples = 75\nvalue = 0.6"] ;
3 -> 5 ;
6 [label="FTAG_10 <= 2.0\nmse = 1.0\nsamples = 2\nvalue = 2.0"] ;
2 -> 6 ;
7 [label="mse = 0.0\nsamples = 1\nvalue = 3.0"] ;
6 -> 7 ;
8 [label="mse = 0.0\nsamples = 1\nvalue = 1.0"] ;
6 -> 8 ;
9 [label="FTAG_6 <= 0.5\nmse = 1.4\nsamples = 241\nvalue = 1.3"] ;
1 -> 9 ;
10 [label="FTAG_3 <= 2.5\nmse = 1.4\nsamples = 132\nvalue = 1.1"] ;
9 -> 10 ;
11 [label="mse = 1.2\nsamples = 118\nvalue = 1.0"] ;
10 -> 11 ;
12 [label="mse = 1.8\nsamples = 14\nvalue = 1.9"] ;
10 -> 12 ;
13 [label="AST_2 <= 1.5\nmse = 1.4\nsamples = 109\nvalue = 1.5"] ;
9 -> 13 ;
14 [label="mse = 1.7\nsamples = 16\nvalue = 2.3"] ;
13 -> 14 ;
15 [label="mse = 1.2\nsamples = 93\nvalue = 1.3"] ;
13 -> 15 ;
16 [label="FTAG_5 <= 0.5\nmse = 2.2\nsamples = 74\nvalue = 2.0"] ;
0 -> 16 [labeldistance=2.5, labelangle=-45, headlabel="False"] ;
17 [label="AST_2 <= 3.5\nmse = 1.9\nsamples = 12\nvalue = 3.4"] ;
16 -> 17 ;
18 [label="FTAG_8 <= 2.5\nmse = 0.3\nsamples = 5\nvalue = 4.2"] ;
17 -> 18 ;
19 [label="mse = 0.1\nsamples = 4\nvalue = 3.9"] ;
18 -> 19 ;
20 [label="mse = 0.0\nsamples = 1\nvalue = 5.0"] ;
18 -> 20 ;
21 [label="Month <= 10.5\nmse = 1.7\nsamples = 7\nvalue = 2.0"] ;
17 -> 21 ;
22 [label="mse = 0.5\nsamples = 4\nvalue = 3.0"] ;
21 -> 22 ;
23 [label="mse = 0.2\nsamples = 3\nvalue = 0.7"] ;
21 -> 23 ;
24 [label="AVGFTAG <= 1.8\nmse = 1.8\nsamples = 62\nvalue = 1.7"] ;
16 -> 24 ;
25 [label="AVGFTAG <= 1.4\nmse = 0.9\nsamples = 28\nvalue = 1.1"] ;
24 -> 25 ;
26 [label="mse = 0.8\nsamples = 11\nvalue = 1.6"] ;
25 -> 26 ;
27 [label="mse = 0.7\nsamples = 17\nvalue = 0.7"] ;
25 -> 27 ;
28 [label="FTAG_7 <= 0.5\nmse = 1.9\nsamples = 34\nvalue = 2.1"] ;
24 -> 28 ;
29 [label="mse = 0.1\nsamples = 5\nvalue = 1.1"] ;
28 -> 29 ;
30 [label="mse = 2.0\nsamples = 29\nvalue = 2.3"] ;
28 -> 30 ;
}